{"i": 9, "n": 3, "ds": [12, 6, 4], "o": 4, "weights": [[[0.3273952381970977, 0.43074650625988364, -0.08271936856014128, 0.528326040623394, 0.9218958630012117, 0.9228512225829433, 0.8500618802195006, -0.8137774089313916, 0.09133697994981027, -0.5408566876106478, -0.16664964062109133, 0.7616902179349838], [0.09753330284719675, 0.15683891456171795, 0.9053071732409821, -0.1119281255000355, -0.6663804834270299, -0.26731186754059477, -0.24231902906853997, -0.9763329979381956, -0.4037359992843432, -0.14063932563293968, 0.5144035036081307, -0.20489194442108238], [0.8933882722443631, 0.6655821699666824, -0.7489004543252873, 0.7995140566827386, -0.3064941984513585, 0.29962512089081783, 0.0011231621041873918, -0.23680721505388913, -0.17211284794099924, 0.057511241613362074, -0.5169163403987997, 0.13535050985799635], [0.28782913801706744, 0.46653049373654554, 0.5938143963013773, 0.51796191168373, -0.8048269225187028, -0.6371760688405654, -0.9796747992531798, -0.7299966687672967, -0.1890802576250652, -0.728046037615335, -0.4860815272336523, 0.6981467939651924], [0.5265087668906825, -0.9791839220189817, -0.33344506138081464, -0.44273883642029244, 0.32232914556061565, 0.018232820539570316, -0.21900000786575702, 0.980404922865393, -0.45295323963197776, -0.8239697842736269, 0.8561123327994631, -0.1917069083692864], [0.5555235898576898, 0.47939686575818197, 0.3839725254779258, -0.892885102367516, -0.6759927128994825, 0.6714322927670879, 0.9190375434792808, -0.47485876567221164, -0.3471641154094345, 0.2662240948375503, 0.5616815717106978, 0.9662407768339027], [-0.7355414517790195, 0.39836997461888424, -0.24240707539178996, -0.5604665538358178, 0.4701632075189044, 0.1773214070168181, -0.18703670869594968, -0.2015497953789882, -0.056474316675784175, -0.15295623823082205, 0.6850167128232365, -0.20168131707401504], [-0.7789494126118943, 0.03490149887007732, -0.8458665450795189, 0.7973658699529262, 0.43944540097493157, 0.052767960743919984, -0.7479981105177436, 0.6883255990714348, -0.3839124952193911, 0.3175495864895177, 0.139663131881262, -0.7818505737328412], [0.8026923659021556, -0.47646889919019, -0.15326636081674883, -0.26246602895942095, -0.15752544939893465, -0.366345595209266, -0.7379973626600274, -0.521623995641094, 0.3509413118204645, 0.4477954412182519, 0.1836896508299033, -0.18478043989370296]], [[-0.37835160778633026, 0.5581033932474471, -0.8598466765292161, -0.8284204494465968, -0.0013950711764001422, -0.4514818551261015], [0.5084644632602129, 0.2544463958152863, 0.30848044972648925, 0.2915381661572847, -0.7862934541523754, 0.9863794628553371], [-0.3017782830683484, 0.6709114053748997, -0.750750951040251, -0.315124504159324, 0.41429891933877694, 0.015494640797257375], [0.10573949117867754, -0.6334170780568886, 0.9120206667606225, 0.5835259095758276, 0.802445043902406, -0.03017327068291742], [0.8713355944704293, 0.8795457298759157, -0.5171744121045787, 0.5725484160988918, 0.2038323316641435, 0.4993827895977463], [-0.2851435279705643, -0.9525220400613053, 0.11873162597435716, -0.07319016099724962, -0.2607888312601345, 0.6548998385135218], [-0.8056379015406805, -0.44054999360882463, 0.4041588440218309, 0.12983965145559262, -0.36997518416041086, -0.6229598445205446], [0.597804529490755, 0.31498288571785227, 0.28563015327332675, -0.26591073583663327, -0.9176392210968731, -0.44696964577621934], [-0.9940234718016219, -0.5385623368299877, 0.7555922363631824, -0.37759807207250295, -0.10018200077496209, 0.2870482984093652], [0.8711251910910562, 0.8479988843175779, -0.07736529266100223, -0.9787584824420452, -0.819912706040602, -0.20049002571813235], [0.12695716162310045, -0.7118902196639452, 0.2929502467102474, 0.8006125463215983, 0.6685454095622734, -0.2779722109502625], [-0.5296332575694189, 0.17761743354885362, 0.5609797707201318, 0.40234902097819325, -0.4687280636543385, 0.09591278854834884]], [[0.05441025595111926, 0.2497143781410156, -0.5736732004880591, 0.6392607237621437], [0.45264168730818377, 0.4482705637352973, -0.22852156414893643, -0.051862117783767925], [0.12229753728780635, 0.5698911027094711, 0.2963722006877738, 0.5361658094591777], [0.0411512225032542, -0.3685145398381082, 0.9770910666658073, -0.9130588664449624], [-0.8073949289863926, -0.1971443065337477, -0.15727844798775803, -0.9768804272447513], [0.9286953515137972, 0.7336725086664126, 0.44363200715782947, -0.3676156570263831]], [[-0.9328284965336975, 0.6779449989438009, 0.25889351834668806, 0.2523306933100904], [0.5840167609587963, 0.09439928326715186, 0.1353478092937359, 0.9392010924248377], [0.8781180335827148, 0.39207671768228947, -0.9180811154083923, -0.7244487734599061], [-0.14098726447814758, 0.4643380416000158, -0.11756207520434536, 0.7956717221226044]]], "biases": [[0.4785482617558603, -0.3366196422629637, 0.28332635743100587, -0.014300521954771828, -0.2802763275007365, -0.3928314129830992, 0.35882123309581737, 0.39704035080187006, 0.3533675886425849, 0.18546152773316948, -0.9101284553630384, -0.85484185222424], [0.3115310392259667, 0.728175374199338, -0.4879265536856141, -0.6483980871125838, 0.6575000756257381, 0.5395264224441116], [0.6175510800252011, -0.8609578470962169, 0.6125992568483656, 0.08614758138929068], [0.7815794899207746, 0.7988371727016907, -0.5849775702125677, 0.3520273138997785]]}